svm_type c_svc
kernel_type rbf
gamma 0.5
nr_class 2
total_sv 8
rho 0
label 1 -1
nr_sv 4 4
SV
0.7765568941931903 1:1 2:1 
0.7568932322999081 1:1 2:3 
0.7737645327864002 1:3 2:1 
0.9175891696194839 1:3 2:3 
-0.9175891696194839 1:5 2:3 
-0.7737645327864002 1:5 2:5 
-0.7568932322999081 1:7 2:3 
-0.7765568941931903 1:7 2:5 
