svm_type c_svc
kernel_type rbf
gamma 0.333333
nr_class 3
total_sv 118
rho 129.333 -8.67303 -86.184
label 2 3 1
nr_sv 53 56 9
SV
10000 0 1:-0.070920371 2:-0.052458648 3:-0.052749533 
10000 0 1:-0.063002743 2:-0.11980521 3:-0.087259279 
10000 0 1:-0.064914433 2:-0.051685464 3:-0.073341024 
9787.2801135196 0 1:-0.050827143 2:-0.10368731 3:-0.10463239 
10000 0 1:-0.042323277 2:-0.02517749 3:-0.072265713 
9401.269261859537 0 1:-0.061385284 2:-0.06274428 3:-0.051545751 
10000 0 1:-0.076519129 2:-0.078513558 3:-0.074094929 
10000 0 1:-0.068701048 2:-0.078538872 3:0.036652785 
10000 0 1:-0.070417638 2:-0.064726011 3:-0.068263102 
10000 0 1:-0.072617016 2:-0.076625652 3:-0.047319087 
10000 0 1:-0.055380918 2:-0.10751508 3:-0.10729852 
10000 0 1:-0.074970889 2:-0.089616985 3:-0.013506552 
10000 0 1:-0.040959061 2:-0.060972763 3:0.065214341 
10000 0 1:-0.095646278 2:-0.11911255 3:-0.081529903 
10000 0 1:-0.11682011 2:-0.12166158 3:-0.10416868 
10000 0 1:0.17695896 2:-0.076823305 3:-0.085505539 
10000 0 1:-0.038680135 2:-0.028686682 3:-0.067178613 
10000 0 1:-0.098326026 2:-0.12323227 3:-0.10380053 
10000 0 1:-0.10062447 2:-0.12233694 3:-0.10348778 
10000 0 1:-0.071718364 2:-0.058247246 3:-0.0063344309 
10000 0 1:-0.099682134 2:-0.070990796 3:-0.041676483 
10000 0 1:-0.05287127 2:-0.02168276 3:-0.055892412 
10000 9099.494663625655 1:-0.046623825 2:-0.018119488 3:-0.044825256 
10000 0 1:-0.069323649 2:-0.074320525 3:-0.039449247 
6948.013594424768 0 1:0.16994699 2:-0.070461831 3:-0.093904261 
10000 0 1:-0.062367381 2:-0.099665272 3:-0.10483001 
10000 0 1:-0.065675751 2:-0.036254866 3:-0.060966261 
10000 0 1:-0.10838631 2:-0.12381187 3:-0.10952044 
10000 0 1:-0.12149257 2:-0.12244415 3:-0.10881474 
10000 0 1:-0.097647187 2:-0.1165793 3:-0.087733917 
10000 0 1:0.1986472 2:-0.081116046 3:-0.080813844 
10000 0 1:-0.077187337 2:-0.1209224 3:-0.10227872 
10000 377.4467866116025 1:-0.06973142 2:-0.049666203 3:-0.012826516 
10000 0 1:-0.059564754 2:-0.039945785 3:-0.051274082 
3189.34479829719 0 1:-0.0040698799 2:-0.0040557317 3:-0.084348882 
10000 0 1:-0.082969591 2:-0.11832106 3:-0.10259988 
10000 0 1:-0.060189989 2:-0.057238367 3:-0.063856977 
10000 0 1:-0.051633359 2:-0.024899365 3:-0.043256314 
10000 0 1:-0.10057445 2:-0.11995248 3:-0.082596434 
10000 523.0585497627393 1:-0.039596849 2:-0.086138974 3:0.17157964 
10000 0 1:-0.050655125 2:-0.042945238 3:-0.060616041 
10000 0 1:-0.052663433 2:-0.10070824 3:-0.10587216 
10000 0 1:-0.072226197 2:-0.058195068 3:-0.064266177 
10000 0 1:-0.052440546 2:-0.030438337 3:-0.058692618 
10000 0 1:-0.10468053 2:-0.11943159 3:-0.099163962 
10000 0 1:-0.060214306 2:-0.045575948 3:-0.049747283 
10000 0 1:0.23886066 2:-0.073896749 3:-0.08504662 
10000 0 1:-0.061143752 2:-0.0817113 3:-0.072788334 
10000 0 1:-0.10188261 2:-0.12105702 3:-0.084418391 
10000 0 1:-0.058933372 2:-0.059420763 3:-0.068208932 
10000 0 1:-0.067049174 2:-0.050707268 3:-0.061065076 
10000 0 1:-0.06750473 2:-0.050895083 3:-0.064614121 
10000 0 1:-0.054357955 2:-0.031840872 3:-0.059780958 
-3513.445402888186 0 1:0.13928411 2:0.042923772 3:-0.034075049 
-10000 0 1:-0.047630093 2:-0.090070929 3:-0.087697055 
-6591.030509501818 0 1:-0.12429057 2:-0.096838409 3:-0.090539193 
-10000 0 1:0.15077478 2:-0.055652993 3:-0.057725106 
-10000 0 1:0.0085130813 2:0.059148951 3:-0.072266696 
-10000 0 1:0.10784305 2:-0.10189324 3:-0.067589141 
-10000 0 1:0.0020126455 2:0.022500182 3:-0.00047044423 
-10000 0 1:-0.11532082 2:-0.064092949 3:-0.088009949 
-10000 0 1:-0.10511381 2:-0.092871599 3:-0.10538665 
-10000 0 1:-0.11381654 2:-0.078540171 3:-0.10195921 
-10000 10000 1:-0.098171769 2:-0.040353206 3:-0.038743009 
-10000 0 1:-0.074240132 2:-0.070997831 3:-0.05249444 
-10000 0 1:-0.06205804 2:-0.080344264 3:0.00088361865 
-10000 0 1:-0.0077343083 2:-0.03312549 3:-0.051316028 
-10000 0 1:0.12922947 2:-0.10633379 3:-0.087291115 
-10000 0 1:-0.099129942 2:-0.10338623 3:-0.073759827 
-0 10000 1:-0.12832172 2:0.19369221 3:-0.10518366 
-0 502.8809190793331 1:-0.12345685 2:-0.040673486 3:-0.10629334 
-9221.431855711069 2088.44525495551 1:-0.044785891 2:-0.04935591 3:0.15402585 
-10000 0 1:-0.071450714 2:-0.10257443 3:-0.075765161 
-10000 0 1:-0.029513831 2:-0.079883799 3:-0.085317094 
-10000 0 1:-0.11435734 2:-0.1012188 3:-0.10229799 
-10000 0 1:-0.032380044 2:-0.026781026 3:-0.043583087 
-10000 0 1:-0.025958166 2:-0.11409673 3:-0.10039996 
-10000 10000 1:-0.066053959 2:-0.018484243 3:-0.067878756 
-10000 0 1:-0.11242849 2:-0.095160609 3:-0.10152501 
-10000 0 1:-0.040135379 2:-0.098762348 3:-0.087999504 
-10000 0 1:-0.049492699 2:-0.091784977 3:0.1360272 
-10000 0 1:-0.095496539 2:-0.097212129 3:-0.082607346 
-10000 0 1:-0.086000439 2:-0.098133513 3:-0.090563593 
-10000 0 1:-0.090269277 2:-0.085116424 3:-0.063267401 
-10000 0 1:0.12517429 2:-0.067545445 3:-0.056212471 
-10000 0 1:-0.094223869 2:-0.031900681 3:-0.098096707 
-10000 0 1:-0.092875499 2:-0.079676749 3:-0.065987277 
-10000 10000 1:-0.11199403 2:-0.072022998 3:-0.064784179 
-10000 4862.738647121654 1:-0.068449194 2:-0.073957653 3:0.026983551 
-10000 0 1:-0.094084103 2:-0.078067417 3:-0.05778487 
-10000 0 1:-0.10821736 2:-0.10413873 3:-0.10148161 
-10000 0 1:-0.10714718 2:-0.10682987 3:-0.095827795 
-10000 0 1:-0.11501493 2:-0.082001274 3:-0.076550021 
-10000 0 1:-0.10644536 2:-0.088164666 3:-0.05915935 
-10000 0 1:-0.10413615 2:-0.10568242 3:-0.10374239 
-10000 0 1:-0.077309863 2:-0.088085736 3:-0.078274457 
-10000 0 1:-0.067223374 2:-0.047212208 3:-0.040891775 
-10000 0 1:-0.10262634 2:-0.10528637 3:-0.01658307 
-10000 0 1:-0.062241966 2:-0.098995464 3:-0.085833442 
-10000 0 1:-0.087870287 2:-0.091259208 3:-0.10226762 
-10000 0 1:0.19387364 2:-0.092203473 3:-0.088040374 
-10000 0 1:-0.10334647 2:-0.086113436 3:-0.0700546 
-10000 0 1:0.033436722 2:-0.07096153 3:-0.0928602 
-10000 0 1:-0.038644702 2:-0.056752006 3:-0.069482293 
-0 8048.439507203101 1:0.067656462 2:0.166743 3:0.16789599 
-10000 0 1:-0.03844952 2:-0.10190421 3:-0.07730332 
-10000 0 1:-0.1117017 2:-0.090684697 3:-0.080621224 
-10000 0 1:-0.011428964 2:-0.052144978 3:-0.0051352032 
-10000 0 1:-0.11249041 2:-0.10095843 3:-0.10515617 
-0 -10000 1:-0.079848686 2:-0.00541391 3:-0.032984478 
-0 -10000 1:-0.077465253 2:0.015080571 3:-0.026147572 
-10000 -10000 1:-0.057772079 2:-0.010520821 3:-0.027988195 
-0 -248.2293520892646 1:0.086482744 2:0.72147964 3:0.29381535 
-0 -3799.223514847557 1:0.044804921 2:0.35438917 3:0.075573499 
-0 -10000 1:-0.10156976 2:-0.024549588 3:-0.041797809 
-0 -835.1362495218841 1:-0.059705337 2:0.15640742 3:0.65636987 
-0 -10000 1:-0.098907655 2:0.00912694 3:-0.052249093 
-0 -619.9152119008864 1:-0.019016299 2:0.13020968 3:-0.00027827199 
